14 100
sentence -0.00022284288 0.0024022288 -0.0027745375 -0.0005703101 0.00012469536 0.0004355524 0.0035913356 0.0029693244 -9.678616e-06 0.00040821815 -0.00018679978 0.0024850143 -0.0016647286 0.0012180117 0.0031259998 -0.002308905 0.0029571892 -0.0010965648 -0.0015305598 0.004311445 2.5330044e-06 0.0031772559 -0.0018184794 0.0043028127 -0.004228251 0.001985791 0.00068681786 -0.0026952752 -0.0035632371 -0.00381089 -0.0046637896 0.0005838723 0.0039696735 -0.0048309383 -0.004622791 0.004109121 0.0030132993 -0.0022065695 0.003119416 -0.0032890644 -0.00024745462 0.0028008823 -0.0038714802 0.0046103024 0.0019035498 0.0028691571 -0.0022644678 0.0033307448 -0.0034213532 0.0028826683 -0.0011343267 -0.0036594847 -0.0046079983 0.00081248983 0.0039750333 -0.0029152231 -0.0022790416 0.0009234251 -0.0033635413 -0.0019266282 -0.0014951846 -0.0037171608 0.00019364717 0.00021001972 0.0039762086 -0.0041048923 -0.0034080714 -0.0031861993 -0.0032553873 -0.0018577346 -0.0029710608 0.0014139473 -0.00016776839 0.0043255785 -0.004258944 0.0034293255 -0.002312971 -0.0007638612 0.0031209178 -0.003207392 0.00266084 0.002467184 -0.0041616554 -0.0018480716 -0.0027585276 0.0020574774 0.0011337211 -0.0044475477 0.0023028518 0.0020225402 0.0024721404 0.0016920201 -0.0010194912 -0.0010542189 0.003259924 -0.0008214796 0.003560715 0.0039086514 0.004945875 0.0045246463
the -0.0036134075 0.004669719 0.0006733254 -0.0027217956 -0.0005182989 0.0041592824 -0.0027829849 0.0030960732 -0.0038876373 0.0013560198 0.004931676 -0.0027978127 0.003014385 -0.0016273133 -0.0003485203 -0.00013117469 -0.0034030864 0.00016324062 0.00015998476 -0.0044813897 0.0007927593 -0.0034271944 -0.0032744033 -0.002058354 -0.0011942945 -0.004278446 0.0016442708 -0.0009523613 0.0039957566 -0.0048977355 -0.0018906884 0.00018732829 0.00043601124 -0.002160055 -0.00018776346 0.0022859834 -0.0024573966 0.0010362784 0.0039937343 -0.0021985976 -0.002586524 -0.0034365526 -0.0023904664 0.004417995 0.0043565608 0.0034998073 0.0033538362 0.004440346 0.004202236 -0.00041716773 0.0041743987 -0.0021337934 0.0025344384 0.0015627396 0.00019724535 -0.0034668397 -0.0047126375 0.0040261643 -0.0015953302 -0.004338387 0.004637884 -0.0016624108 0.0011906745 -0.0039907265 -0.001277387 -0.002260896 -0.00022684534 0.0016554908 -0.0048746318 -0.004379848 0.0014764394 -0.0032623883 -4.475821e-05 -0.004144982 0.0006691307 0.0008955644 0.00393734 0.00081864465 0.0028981606 -0.0011410591 0.004290047 0.00035695 -0.0012808783 -0.0033601266 0.0036247894 0.00075254194 0.0024734167 0.00065969594 0.0048284256 0.003427666 -0.0019180662 -0.0005285065 -0.002820733 0.0043944106 -0.0007327282 0.001265377 -0.0011790767 -0.0017825164 0.0012877783 -0.00440831
this -0.0034813518 0.00057992106 0.0012584337 -0.0025145449 -0.0033677414 0.004786214 -0.0014997162 -0.0036630898 -0.0039850613 0.0015625744 -0.0044187 -0.0038554277 0.0022921504 0.0038126889 -0.0017128544 0.002125599 -0.00442373 -0.0028907296 -0.0019995542 -0.001948273 0.0034097345 -0.0014186502 -0.0049583237 0.00015400923 -0.001603823 0.0022995158 0.0024160033 -0.001073425 -9.2802926e-05 0.0021453116 0.003344152 0.004902474 0.0006171033 -0.0010461138 0.0021184029 0.0006802617 0.0041526393 -0.0026752907 -0.0035832727 0.0039471556 0.003386711 -0.002567692 0.0019608184 0.0032487651 -0.0014128671 -0.00076594413 0.004412979 -0.0028644637 -0.0031276532 0.00026661484 -0.0027991005 0.0018422676 0.0031585274 0.0046768943 0.0005591187 0.0021451556 0.0019091495 0.0016328301 0.0033104222 0.0015911122 -0.003938431 0.0021287948 0.0020923214 0.0009453217 0.0041807876 0.0017220986 0.0013854272 0.0024043887 -0.00015540764 0.0014218295 -0.0016876289 -0.00020110652 -0.00483359 0.0019988643 0.0033049916 0.0012680584 0.0012956912 0.0020617507 -0.0046417196 0.0034291968 -0.0037122227 0.0009589846 -0.00022753209 -0.0022472586 0.004128556 -0.0036657203 0.0026503543 -0.004901663 0.00037110702 -0.001395193 -0.003357064 -0.0010653815 0.0021343427 -0.0010486223 -0.001420232 -0.0033845797 0.0026726755 0.0036775828 0.004349388 0.0037094308
is -0.0027059938 -0.0047783735 0.0007399059 0.0005641687 -0.0037585446 -8.630244e-05 -0.00470759 0.0029732657 -0.0006657654 0.0038933575 -0.0024749383 -0.0014882302 -0.0023264196 -0.002443377 -0.004115655 -0.0027080786 -0.0030334073 0.0032311333 0.0014257611 -0.0033059358 0.003412648 -0.001724226 -0.004715749 0.0033987393 -0.0025789936 0.0020404537 -0.00083460996 0.004031956 -0.0038583686 0.0022233122 0.0006964237 0.0017970394 0.0004435788 0.00072535285 0.00022872392 -0.0009198497 -0.002159965 -0.001262982 -0.00032612798 0.0027401191 0.003012979 0.002569615 -0.0005834209 -0.0049480773 -0.0036740089 -0.004826099 0.0005572524 -0.0018471255 -0.0024109795 -0.004711002 0.003722066 0.001637497 0.0016874772 -0.0044338084 -0.00488699 -0.004864059 0.0010976595 -0.003486843 0.00052576035 0.003945958 0.00018499921 -0.0038945447 -0.00084117264 0.0020574806 -0.0023423592 -0.0016638193 0.004063335 0.0027556028 -0.0025563997 -0.0038288902 -0.0039963075 -0.0018641112 0.0044797543 -0.0024693504 -0.0016908142 -0.00027826868 0.0010699088 -0.0016990363 0.0026707116 -0.0040355255 -0.0025239368 -0.002484787 0.0018478875 0.0038810032 0.00021902469 -0.0023860538 -0.0042554596 -0.0026606983 0.004651913 0.0033191117 0.0021723055 0.0031375575 0.0009421551 -0.0032369613 0.0039906297 0.0014931754 -0.00010310906 0.0014582595 0.0033123193 0.004304245
first -0.0010231814 0.002435146 0.0020972965 -0.0025183717 -0.0049567646 0.0028597808 -0.0024957927 -0.0037023965 -0.0033155063 0.003483484 -0.00063163094 -0.004329676 0.0011997952 -0.004599012 7.625979e-05 0.0029182925 0.0039057275 0.0021285273 0.0021543948 -0.0028003869 0.0042369096 0.00024809648 -0.0007721368 -0.0007400334 0.0017953111 -0.0021615496 -0.0017978108 0.00095841935 0.00073204393 -0.0006480538 -0.00022547852 -0.00011750932 -0.0005246517 0.0017822416 0.0029125756 -0.0043270285 0.0024049683 -0.001593381 0.0008321118 0.00043938117 -0.0030893635 0.004827385 -0.0049847527 0.0036924116 0.0034731587 0.0020299763 -0.0005756881 0.0047473786 -0.0014271348 0.0017841461 -9.392632e-05 0.00029355707 0.0023853688 -0.00063588575 0.0017624876 0.00071258016 -0.0030654853 -0.003202646 -0.0038031735 -0.0041245185 -0.0029414026 0.003813956 -0.0029868067 -0.0018341002 0.0041621597 0.0015686486 0.0049496153 -0.0032193316 -0.000687773 -0.0033999698 0.0026079817 -0.0030338874 0.00035174043 0.0045109666 0.003610094 -0.00068869744 -0.0031554638 0.0033170483 0.0041525057 0.0018209078 -0.0028316698 0.0012205652 0.002681587 0.00029203988 -0.00053527625 -0.003965329 -0.0026743454 0.00035721905 -0.001465371 -0.002503135 0.0003240138 0.003131527 -0.0026924228 0.0020891908 0.004366146 0.0020690889 -0.0014561915 0.0033041288 -0.002220024 0.0028024816
for -0.0018234276 -0.003581793 0.0039172964 -0.004530306 0.0013067484 -0.00017880864 -0.0022911094 0.0016728145 -0.003954216 -0.002651986 0.0047509484 -0.0027811916 -0.0017551619 -0.004329428 -0.0048500868 -0.00012455427 0.00016759335 0.00417719 -0.0045210784 0.0048416364 0.0023008229 -0.00045410142 -0.001627799 0.0017109227 0.0048846123 -0.0029240274 -0.00050861127 -0.0008164424 0.0001144131 -0.0042006583 -0.0033769617 0.0016039128 -0.0037875702 -0.0017248107 -0.0048896563 0.0042582764 -0.0011064431 0.0028750394 -0.0032967657 -0.0026003907 -0.0023131077 0.00035915288 0.0005998486 -0.0047425968 0.0045226132 0.00093296124 -0.0031793641 0.00054477825 -0.0016887477 -0.0046598474 0.0044656745 -0.002408851 0.002282481 0.004738139 -0.0024130144 -0.0006122735 -0.0014895034 -0.0022162518 0.0037960706 0.00025674942 -0.003414498 0.0043784487 -0.00055707287 -0.0006373611 0.0028562744 -0.00092094636 0.0008351285 -0.0016258637 0.0019700183 0.0003715131 -0.0036585454 0.001907689 0.0047109346 -0.000109869456 -0.003087866 0.004633136 -0.0019092459 -0.004200563 0.0013672329 -0.0026178416 0.0003637365 8.575399e-05 -0.0004226617 0.00097629597 -0.002870811 -0.00043999118 0.0039928053 0.0014510477 -0.0034092595 0.004183605 0.0002016976 -0.0043993625 -0.001326977 -0.0037044666 0.0040912917 -0.0016542037 0.0022068832 0.002493969 -0.0047423933 0.0028842858
word2vec 0.0009262282 -0.0032511286 0.0017331083 0.003424398 0.0013476323 -0.0048508467 0.0005473709 0.002837243 0.00402598 -0.00090056565 -0.0011522296 -0.0047757225 -0.0002256398 -0.00403081 0.00024785145 0.0013151239 -0.0048389 -0.00090624375 0.004365657 0.0025346067 -0.0004849456 0.0044498136 -0.0015905334 0.0019938224 0.00027396777 0.002474874 0.0015363506 -3.1627158e-06 -0.00074553466 0.0015915525 0.00056183315 -0.003686493 0.0029929637 -0.003660913 -0.00010438346 0.004570619 -0.0045904242 0.0041432865 -0.0022085775 -0.0045846715 -0.0029397872 -0.00085194095 0.0039458065 -0.0042415615 0.0034619323 -0.0012408504 0.0026811264 0.003197175 -0.003525522 -0.0012706976 -0.0021578048 0.0034061463 0.0031894548 -9.9442004e-05 -0.0049260166 -0.0036155619 0.00089100044 -0.0019852135 -0.0048251045 -0.00027061856 0.002894344 0.0013973971 0.00320965 0.004508482 -0.0018537263 0.00085070817 -0.0027866636 0.003215756 0.0015487721 -0.0046892907 -0.0010023193 -0.0003166492 0.0009868846 -3.0363279e-05 0.0020666542 0.002042092 0.0028819742 0.0014087397 0.0023748125 -0.0030874347 -0.0036297583 -0.00090800837 -0.0023130514 0.0024650514 -0.00014755396 0.00011652332 -0.0008703135 -0.0039222273 0.0033363965 -0.0004719294 -0.0042543486 -0.0044199675 0.0037435836 0.0015790042 -0.0037962408 -0.0024966816 0.0034508258 -0.0010448071 -0.0016517823 -0.001800357
second -0.0014772529 0.0029071926 0.0027887102 0.001481642 -0.00020172348 0.0018796959 -0.004279193 0.0025574733 0.0019404029 -0.004571888 0.00078885857 0.00048827086 0.00083340687 -0.0041517457 -0.0019223903 -0.0040091746 -0.0047216173 0.0019931924 -0.0027936157 -0.004698174 0.003854911 -0.0025184345 0.0012031242 -0.0032318896 -0.00066212384 0.0016584187 0.0022605387 -0.0019039329 0.00045607158 -0.0018607196 -0.00019892977 -0.003660738 -0.0038225243 -0.0014493824 -0.004324074 0.0011404506 -0.0025686678 -0.004595898 -0.0014403446 0.0023416309 5.1421324e-05 -0.0008094853 -0.00033952136 -0.001001969 -0.0040890225 0.004618317 -0.0018817142 -0.0002073431 0.0033408606 0.004235407 0.0023083067 -0.0039109606 0.0001613626 -0.0006711026 -0.0029552078 0.004817123 -0.0017132554 -0.0044616703 0.00088415446 -0.00372521 -0.00121092 0.0028133667 0.0024757932 0.001741193 0.0021089588 0.0031133627 -0.0012112516 -0.0009705391 0.0012058296 0.0015953499 0.0011419955 0.0018160423 -0.0005249558 -0.0031866997 0.0034579395 0.0021569452 -0.0014134119 9.755912e-05 0.0012442563 0.0033287767 -0.0044539077 -0.003599736 0.004920816 -0.00086532196 0.0020873093 0.0029089188 0.0036996612 0.0017941702 -0.0032880292 -0.00085120316 -7.071329e-05 -0.0026377435 0.0008279197 -0.0017506122 0.00018272223 -0.00070554676 -0.0048213364 0.0013732874 -0.00049517746 0.0044562314
yet 0.0002443744 -0.0036025266 0.0037895865 0.00083534827 0.003416978 -0.0009987504 0.0024526448 0.0036999953 0.002873395 -0.0003544236 0.0031408719 -0.003998812 0.0027388635 -0.0046815965 -0.003426136 -0.00037508085 0.0015250433 -0.00062251935 0.0019951311 0.00088616257 0.0025618281 -0.0036473258 0.0046978067 -0.0007641238 0.0031719878 -0.0010378577 -0.0010548458 0.0048298044 -0.003021966 -0.0032446585 -0.00047351918 -0.00032491016 0.0015808911 0.00053661474 0.0006878595 -0.0031656036 0.00039398923 0.003731002 -0.002840651 -0.00046417653 -0.0010254431 -0.004647259 0.0007349559 0.0041209 0.004969554 0.004190986 0.0049735066 -0.0021938684 -0.0019054837 0.0033474527 0.0027153476 0.0029191817 -0.003279734 -0.004505521 0.004142597 0.0032460054 0.0035857076 0.0009743117 -0.0037057688 -0.0015748367 -0.0039915186 9.4156974e-05 -0.0014993326 -0.003096308 0.0019375272 -0.004387879 0.0024588073 0.002116754 -0.0049617146 0.0037228449 0.0029067507 0.0010678619 -0.0033239943 0.0028960472 -0.0032535014 -0.0048067644 0.0013694623 -0.003901836 -0.0048172316 0.00034362604 -0.001621807 -0.0028189672 0.002082225 0.003897632 0.004549561 0.0010284969 0.004039933 -0.00013890474 -0.0026485624 0.003588231 0.0049026054 0.001368855 -0.0022454662 -0.0027324783 -0.004365856 -0.0035813437 -0.0044584535 0.0029671334 -0.0049566417 0.0042414144
another -0.0010017521 0.0037937034 0.0010325505 0.00025712437 0.003281363 0.004546761 -0.0011663339 -0.0008120904 0.0010699307 -0.004528012 -0.004337018 0.0035611093 0.0047267647 0.004011794 -0.00031374823 -0.001215763 1.9331857e-05 -0.0006602513 -0.0030613414 -0.0018819825 -0.0007198125 -0.00012691334 -0.0014451386 0.0026736527 0.0032487158 -0.0035940774 0.0008099135 -0.0005584293 -0.002762375 -0.0031451818 -0.0032876427 -0.0025315222 -0.0030799073 -0.00415847 -0.0007613528 -0.0023428455 0.0016510028 -0.0020092535 0.0005624321 -0.0038030995 0.0045375894 -8.062603e-05 -0.004942595 0.0014319571 -0.00012865844 0.0040425626 0.0017186378 0.0025829528 -0.0037164174 -0.00425289 -0.0012405444 -0.004452959 0.0037512141 -0.0046104337 0.0037769969 -0.003178647 -0.003542811 0.0023412355 -0.004544755 0.0036147903 0.000665284 0.004559368 -0.0012360652 -0.002351519 0.00029165315 -0.0046482286 0.00020447429 0.0009339948 -0.0032636563 -0.004715671 0.0021206823 -0.0031807863 0.0028228036 0.004552651 -0.0037928084 -0.004438024 0.0030673563 -0.0029525417 -0.0049762623 -0.0032600053 -0.0019606974 0.0025148361 -0.0001314316 0.0040843505 0.0020393517 -0.0026493995 -0.0039486075 0.002544792 0.0043287617 0.0013823694 0.00205234 -0.00014221523 -0.0043687914 0.0004943268 -0.0014749499 0.003977781 -0.00095523614 0.0048479545 -0.0028308514 -0.0014703121
one -0.0021108254 -0.0029524236 -0.0025221007 -0.0024941573 0.0047728773 -0.0014522525 0.0027425576 0.0003798607 0.0033634133 -0.000678359 0.0022727468 -4.152823e-05 0.00021873588 -0.0012247104 -0.0030142812 0.004098868 0.0041054017 -0.0023803534 0.0021235999 0.00014944881 0.00095953274 -0.0046287244 -0.0023209562 0.0039875554 -0.002596294 -0.0002374844 -0.0005900001 0.004588443 0.00015541348 0.0048745717 0.00070387585 0.0034569316 0.0012460607 0.0019432314 0.0014470363 -0.0016546899 0.0037579588 -0.0034448705 0.0041884896 -0.0020573498 -0.0012598411 -0.0013438268 0.0016032069 -0.0033700692 0.0014054048 0.0032896912 -0.0032592742 -0.0019869977 0.0031642173 0.0013541654 -0.0014097898 -0.004710872 -0.0024557095 -0.0004497439 0.00017464503 0.0034279597 -0.00040984675 -0.0036124317 -0.00029910594 -0.00063041755 -0.00274287 0.00037594658 0.0011102868 0.0036502867 -0.0038464845 -0.0009996226 0.0032996666 -0.0004838458 0.0045592 -0.004706104 -0.0045079663 0.0027169737 0.0029765961 -0.0011735683 -0.0021992845 0.00029220578 -0.00034113554 0.0036917576 -0.00069081876 -0.0029834425 0.004483562 -0.0032683513 -0.004394358 0.0016652041 -0.0018568496 -0.00488194 -0.0007272577 -0.0038318746 -0.003133058 0.0027555947 0.004767517 -0.0013922148 -0.0024575102 -0.0011356542 0.00083829515 0.00021617163 0.0041784076 -0.003291064 -0.00228776 -0.0034458558
more 0.0002158758 0.002689839 -0.0014795376 0.003938241 -0.0012229155 -0.0023658404 0.004790356 6.735269e-05 0.0018915383 0.0018713113 0.0037114676 0.0014270789 -0.0018009457 -0.0031273686 -0.00012561899 -0.0042259693 0.0037534183 0.0021124298 0.0032638835 -0.00058678177 -0.0009469488 -0.0031012741 -0.0013336146 0.00067391543 -0.0028193505 0.0025241 -0.0001712143 -0.0023626676 -0.0010556428 -0.00431804 0.00278276 0.004641368 0.0035087657 0.0010590395 -0.0026166672 -0.0017006717 0.004413496 -0.0036474436 -0.0021341164 -0.002740349 -0.0033511468 -0.0011241988 -0.0004173251 0.0017399936 -0.0025245852 -0.004360483 -0.002621665 0.003692477 0.003909899 0.0021395662 -0.0024285216 0.0018951669 0.0033985642 -0.002229845 0.0038195895 -0.0039699213 0.0025641932 0.00047213634 -0.0018680135 -0.0048411964 0.00034954297 0.0031835977 -0.0035827882 -0.0029998776 -0.0023485634 -0.004172688 0.0027631365 -0.004550261 0.003682038 0.00068441953 0.002882831 0.0045892256 -0.00020192421 0.00032461956 -0.0021377667 0.0040808013 0.000450124 0.0045382394 0.0029159978 -0.0009805799 -0.00417468 -0.0025734785 9.735872e-05 0.0031870983 0.0029972626 3.549254e-05 -0.0011645975 -0.0036517312 -0.0035747874 0.0018173262 -0.0014437456 0.0006583329 -0.0011658263 0.003509807 0.002161615 0.0024557533 0.0027794426 -0.00049845426 0.00048194712 0.000742906
and -0.0015428342 0.004913801 0.0019182116 -0.0023934203 7.88264e-05 0.0034702304 0.0041430946 0.003363642 0.0019904214 -0.0021994608 0.002298919 0.0036813042 -0.00386211 0.00014802766 -0.004395248 7.9482255e-05 -0.0049303607 -0.003213908 0.0007666793 0.0013292778 -0.0033900528 -0.004939098 0.004400552 -0.0019498238 0.0017415355 0.00039508266 0.00414509 0.0042441334 -0.0041983263 0.003080171 -0.0031458456 0.0012719989 0.0016170163 0.0037652934 0.0010257413 0.0032643322 0.0024928998 -0.0041924086 -0.0007787441 -0.002971461 0.0020568015 0.0025843154 -0.0015996073 0.003422521 0.0044063274 -0.0026811003 0.00033447775 0.002508464 0.0019571993 0.0024349599 -0.0008567772 -0.0012831733 0.0026982687 0.0007194573 -0.00010899982 -0.0018146428 -0.0033531347 0.001595492 -0.0003459712 -0.0015123083 0.0024977587 0.0020270082 0.004765502 -0.004296807 0.004214483 0.0013734562 -0.0031878005 0.0016849885 0.0013180886 -0.0027296925 0.0008734747 -0.0046268106 -0.0015045411 0.00077727216 -0.0024979082 0.00018667169 0.003938776 -0.00042527894 -0.0047838204 -0.004697215 0.0017752618 -0.0022626356 0.0030706867 0.004513352 -0.00072997005 0.0030389584 0.0033706538 0.0023767517 0.0038993445 0.0017442069 0.0044985376 -0.0015779819 0.0022757133 0.004355561 0.0012316013 -0.004349324 0.003123126 0.0034628813 -0.0018639233 0.0012767535
final 0.0033886824 -0.00047929518 0.0048923637 0.0019092011 -0.0021987818 0.00472834 0.0028405117 -0.0046141706 0.0046949484 0.0024308725 0.004280609 0.0026423538 -0.002461557 -0.003440032 0.0045159496 -0.0018776084 0.003618383 0.0017934757 -0.002073481 0.0023859662 0.0016603807 0.0034555623 0.0029359723 0.0047748643 -0.00088476425 -0.0029111048 -0.00030092284 0.0002967275 -0.00011396265 0.0015206663 0.0021580502 0.0017886759 0.00035954485 -0.0020179395 -0.0045870277 -0.0042238757 -0.0049733943 -0.0012637719 -0.0030480076 -0.0037612435 -0.0048478716 0.0019893346 -0.0028269233 0.0034867309 0.0021303832 -0.0033453554 -0.0024477614 -0.0015719547 0.0043049557 0.0029944228 0.0031721513 0.004861805 0.0047462257 -0.0032969948 -0.0017615082 0.00044188724 -0.0046435893 -0.0033207901 0.003589098 -0.00065860077 0.0009291131 0.0015864609 0.0021407218 0.004469417 0.004935577 0.0044859936 0.0006683392 0.0013732868 0.002988706 -0.00019764487 0.0045424346 0.0025059541 -0.002156755 -0.00486131 0.00014791863 0.003471901 0.003429853 0.0036981085 0.0004018831 0.0038901537 -0.0047862264 -0.0045101987 0.0039209346 0.002597463 -0.0024135415 0.0005720683 -0.0020827297 0.0039768014 -0.0037231538 0.004832697 -0.0025024533 -0.0032606074 -0.00023210282 -0.00034885557 -0.00039459253 0.00389098 -0.0012292948 -0.0028309636 -0.003131278 0.003581373
